<?xml version="1.0"?>
<opencv_storage>
<cascade>
  <stageType>BOOST</stageType>
  <featureType>LBP</featureType>
  <height>24</height>
  <width>24</width>
  <stageParams>
    <boostType>GAB</boostType>
    <minHitRate>9.9500000476837158e-01</minHitRate>
    <maxFalseAlarm>5.0000000000000000e-01</maxFalseAlarm>
    <weightTrimRate>9.4999999999999996e-01</weightTrimRate>
    <maxDepth>1</maxDepth>
    <maxWeakCount>100</maxWeakCount></stageParams>
  <featureParams>
    <maxCatCount>256</maxCatCount>
    <featSize>1</featSize></featureParams>
  <stageNum>12</stageNum>
  <stages>
    <!-- stage 0 -->
    <_>
      <maxWeakCount>1</maxWeakCount>
      <stageThreshold>9.6805691719055176e-01</stageThreshold>
      <weakClassifiers>
        <_>
          <internalNodes>
            0 -1 43 -69206017 -3155989 -615255049 -2100769 -24117505
            -5256773 -40895505 2147482623</internalNodes>
          <leafValues>
            -1. 9.6805691719055176e-01</leafValues></_></weakClassifiers></_>
    <!-- stage 1 -->
    <_>
      <maxWeakCount>1</maxWeakCount>
      <stageThreshold>9.3963843584060669e-01</stageThreshold>
      <weakClassifiers>
        <_>
          <internalNodes>
            0 -1 4 -2097185 -2633249 1469839327 -140519969 -236717057
            2073805215 -91489825 399473663</internalNodes>
          <leafValues>
            -9.8444253206253052e-01 9.3963843584060669e-01</leafValues></_></weakClassifiers></_>
    <!-- stage 2 -->
    <_>
      <maxWeakCount>3</maxWeakCount>
      <stageThreshold>6.8389803171157837e-01</stageThreshold>
      <weakClassifiers>
        <_>
          <internalNodes>
            0 -1 34 -172492865 -417881261 -1862151781 -866389685
            -1215843909 -351030750 -74974209 -857935367</internalNodes>
          <leafValues>
            -8.6782926321029663e-01 9.0163451433181763e-01</leafValues></_>
        <_>
          <internalNodes>
            0 -1 9 -2097153 -37238777 -444108513 -40111521 1758419951
            -125587326 2007448575 2080374495</internalNodes>
          <leafValues>
            -9.6499991416931152e-01 7.5814193487167358e-01</leafValues></_>
        <_>
          <internalNodes>
            0 -1 37 1608514527 1000292507 1228964305 181129627
            -1342044021 -649916381 -1342008694 -18100081</internalNodes>
          <leafValues>
            -8.2575094699859619e-01 7.9358536005020142e-01</leafValues></_></weakClassifiers></_>
    <!-- stage 3 -->
    <_>
      <maxWeakCount>1</maxWeakCount>
      <stageThreshold>8.8514447212219238e-01</stageThreshold>
      <weakClassifiers>
        <_>
          <internalNodes>
            0 -1 40 -3146753 -134753281 -549400097 -4196973 -58213445
            -107229798 -1147405313 1308621823</internalNodes>
          <leafValues>
            -9.4900560379028320e-01 8.8514447212219238e-01</leafValues></_></weakClassifiers></_>
    <!-- stage 4 -->
    <_>
      <maxWeakCount>3</maxWeakCount>
      <stageThreshold>-3.4994047880172729e-01</stageThreshold>
      <weakClassifiers>
        <_>
          <internalNodes>
            0 -1 6 -524417 -67158209 -1 -202113038 -137 2139059991 -144
            -229572752</internalNodes>
          <leafValues>
            -7.0608270168304443e-01 8.6119455099105835e-01</leafValues></_>
        <_>
          <internalNodes>
            0 -1 8 2145344479 1071616199 1900222877 -2129903 1535802363
            1067141514 -385107813 -3156581</internalNodes>
          <leafValues>
            -6.2839001417160034e-01 7.2378975152969360e-01</leafValues></_>
        <_>
          <internalNodes>
            0 -1 27 -672137217 -1870905547 1525399414 808515184
            -1514867291 1081409333 -1059520796 -201657120</internalNodes>
          <leafValues>
            -5.8274501562118530e-01 6.9252020120620728e-01</leafValues></_></weakClassifiers></_>
    <!-- stage 5 -->
    <_>
      <maxWeakCount>3</maxWeakCount>
      <stageThreshold>-2.9758721590042114e-01</stageThreshold>
      <weakClassifiers>
        <_>
          <internalNodes>
            0 -1 1 -542148609 -779648505 -1601973507 -49561149
            1234125019 -938524509 33763771 2138537847</internalNodes>
          <leafValues>
            -8.6618006229400635e-01 8.3409219980239868e-01</leafValues></_>
        <_>
          <internalNodes>
            0 -1 11 -1 -1 -1 -219742210 -1 -524289 -134219788 -252184617</internalNodes>
          <leafValues>
            -5.9725451469421387e-01 7.0231378078460693e-01</leafValues></_>
        <_>
          <internalNodes>
            0 -1 30 -84936705 -771293444 -226528136 -158273860
            -1464355403 67170297 83334640 -24214316</internalNodes>
          <leafValues>
            -5.3442490100860596e-01 6.6451930999755859e-01</leafValues></_></weakClassifiers></_>
    <!-- stage 6 -->
    <_>
      <maxWeakCount>4</maxWeakCount>
      <stageThreshold>1.8508100509643555e-01</stageThreshold>
      <weakClassifiers>
        <_>
          <internalNodes>
            0 -1 10 -787424769 525408731 420500959 387571601 34105595
            1065877928 713042670 2139870619</internalNodes>
          <leafValues>
            -9.1183292865753174e-01 7.9676544666290283e-01</leafValues></_>
        <_>
          <internalNodes>
            0 -1 24 -1728583113 271847031 1811332926 571762494
            1148455984 24383317 -1396408944 -1565862960</internalNodes>
          <leafValues>
            -5.7304775714874268e-01 7.0119267702102661e-01</leafValues></_>
        <_>
          <internalNodes>
            0 -1 36 -2097181249 -1574292678 -1224738817 -264737262
            -1501562947 1675124190 -1489194562 -1148575620</internalNodes>
          <leafValues>
            -5.2927935123443604e-01 6.4742517471313477e-01</leafValues></_>
        <_>
          <internalNodes>
            0 -1 3 -6339073 -7403063 16843023 -69271521 -2004122725
            -812676721 -1951752273 -789060217</internalNodes>
          <leafValues>
            -6.5345305204391479e-01 4.9064266681671143e-01</leafValues></_></weakClassifiers></_>
    <!-- stage 7 -->
    <_>
      <maxWeakCount>3</maxWeakCount>
      <stageThreshold>2.2117118537425995e-01</stageThreshold>
      <weakClassifiers>
        <_>
          <internalNodes>
            0 -1 0 -3145729 -45150049 -981397057 -38305765 -1070887681
            -1174175702 -578044161 2071460471</internalNodes>
          <leafValues>
            -8.3938223123550415e-01 7.9048943519592285e-01</leafValues></_>
        <_>
          <internalNodes>
            0 -1 28 -26000329 -713109249 -336069257 2102329342
            -192989969 -576530435 -841501476 -117508868</internalNodes>
          <leafValues>
            -4.8009461164474487e-01 6.7126977443695068e-01</leafValues></_>
        <_>
          <internalNodes>
            0 -1 42 -39847969 390320283 -268382127 924177465 -669785213
            -644593664 -225861433 805302687</internalNodes>
          <leafValues>
            -8.0650955438613892e-01 3.8928362727165222e-01</leafValues></_></weakClassifiers></_>
    <!-- stage 8 -->
    <_>
      <maxWeakCount>6</maxWeakCount>
      <stageThreshold>-3.9169538766145706e-02</stageThreshold>
      <weakClassifiers>
        <_>
          <internalNodes>
            0 -1 17 -620510753 2131874207 -66893475 1070843359
            1904797883 1554546875 2014072287 90272877</internalNodes>
          <leafValues>
            -8.0249279737472534e-01 7.5984174013137817e-01</leafValues></_>
        <_>
          <internalNodes>
            0 -1 20 -1342230721 595570559 805257087 587202559 805271423
            7601975 2013231103 -58722317</internalNodes>
          <leafValues>
            -5.0496530532836914e-01 6.6932195425033569e-01</leafValues></_>
        <_>
          <internalNodes>
            0 -1 23 -153416911 -1286406068 -2121158241 860639708
            -1887063499 -1157332992 -1870145552 -115342128</internalNodes>
          <leafValues>
            -5.9769397974014282e-01 4.4138431549072266e-01</leafValues></_>
        <_>
          <internalNodes>
            0 -1 31 -588295049 -1761198258 -1615398092 -564732324
            2112046752 -972786097 -949081056 -69315108</internalNodes>
          <leafValues>
            -4.5297893881797791e-01 4.9971643090248108e-01</leafValues></_>
        <_>
          <internalNodes>
            0 -1 38 -237765641 2101432533 -770686893 857444497
            1140883522 1367376384 -2147433805 193179907</internalNodes>
          <leafValues>
            -6.3703781366348267e-01 3.5336849093437195e-01</leafValues></_>
        <_>
          <internalNodes>
            0 -1 35 -1463553185 -872251244 -1055706823 -65912812 9646128
            -2004352103 -801501132 -86093412</internalNodes>
          <leafValues>
            -5.2377843856811523e-01 4.4096937775611877e-01</leafValues></_></weakClassifiers></_>
    <!-- stage 9 -->
    <_>
      <maxWeakCount>5</maxWeakCount>
      <stageThreshold>-5.3591418266296387e-01</stageThreshold>
      <weakClassifiers>
        <_>
          <internalNodes>
            0 -1 2 -1328430657 -581106247 83886109 -44234287 -2137882497
            -556922808 -1970632605 1077350519</internalNodes>
          <leafValues>
            -9.6039605140686035e-01 7.5539177656173706e-01</leafValues></_>
        <_>
          <internalNodes>
            0 -1 5 -805240801 -754974720 16409 -771751936 -2146597750
            -494351224 -2121776767 -1289503679</internalNodes>
          <leafValues>
            -4.9808251857757568e-01 5.5162382125854492e-01</leafValues></_>
        <_>
          <internalNodes>
            0 -1 39 -1827548841 -1760095855 -1324314343 470274525
            -1056931837 -1693421567 -267747175 -1964059969</internalNodes>
          <leafValues>
            -4.8934957385063171e-01 4.3717250227928162e-01</leafValues></_>
        <_>
          <internalNodes>
            0 -1 12 -146025217 788776969 1358958601 1023475712 142738443
            193462280 2013333515 -1081360248</internalNodes>
          <leafValues>
            -5.9673142433166504e-01 3.6192855238914490e-01</leafValues></_>
        <_>
          <internalNodes>
            0 -1 7 -70524929 289522115 -176107435 2084651009 2030751919
            34111616 1774877503 2033936999</internalNodes>
          <leafValues>
            -7.5684875249862671e-01 2.6824048161506653e-01</leafValues></_></weakClassifiers></_>
    <!-- stage 10 -->
    <_>
      <maxWeakCount>7</maxWeakCount>
      <stageThreshold>-8.9849680662155151e-03</stageThreshold>
      <weakClassifiers>
        <_>
          <internalNodes>
            0 -1 41 -175114957 321642769 1074003969 889278467
            -1035992832 -1627193344 -1056911104 217054875</internalNodes>
          <leafValues>
            -8.9610391855239868e-01 7.4456340074539185e-01</leafValues></_>
        <_>
          <internalNodes>
            0 -1 14 2333 -620166911 283 -1072693221 -2146596725
            -1157038068 -2138275309 -2079932411</internalNodes>
          <leafValues>
            -5.0586235523223877e-01 5.3453940153121948e-01</leafValues></_>
        <_>
          <internalNodes>
            0 -1 27 2064846935 976138497 1091049522 -2112094176 17482289
            287703041 807682224 -1078279712</internalNodes>
          <leafValues>
            -5.7419127225875854e-01 3.6227032542228699e-01</leafValues></_>
        <_>
          <internalNodes>
            0 -1 13 -758910761 1124270145 114909 -38469537 -1576830769
            -473823031 680200319 1551002491</internalNodes>
          <leafValues>
            -7.7367937564849854e-01 2.7192085981369019e-01</leafValues></_>
        <_>
          <internalNodes>
            0 -1 26 -1562434505 -775174712 -804508203 -687685120
            -1998838491 564133904 210273268 -104316768</internalNodes>
          <leafValues>
            -5.6114339828491211e-01 3.7587091326713562e-01</leafValues></_>
        <_>
          <internalNodes>
            0 -1 32 -327826467 -421936875 1410941012 -220802856
            -1072603095 -1935605366 541216988 -813808440</internalNodes>
          <leafValues>
            -5.0519806146621704e-01 3.7684398889541626e-01</leafValues></_>
        <_>
          <internalNodes>
            0 -1 18 -1049633 16994438 9029109 755171333 680020591
            176717962 706955503 1787531403</internalNodes>
          <leafValues>
            -7.5255000591278076e-01 2.5788399577140808e-01</leafValues></_></weakClassifiers></_>
    <!-- stage 11 -->
    <_>
      <maxWeakCount>8</maxWeakCount>
      <stageThreshold>-2.0767173171043396e-01</stageThreshold>
      <weakClassifiers>
        <_>
          <internalNodes>
            0 -1 19 557908107 -1584824295 16777233 -435617767 134742043
            -1953988478 33554451 7831603</internalNodes>
          <leafValues>
            -8.4677422046661377e-01 7.3081040382385254e-01</leafValues></_>
        <_>
          <internalNodes>
            0 -1 21 -134762701 -400264517 -487068111 1914239016
            -1707984239 1144356148 1623192752 -1279599472</internalNodes>
          <leafValues>
            -4.2095103859901428e-01 5.8140343427658081e-01</leafValues></_>
        <_>
          <internalNodes>
            0 -1 29 -1083489257 -697932579 -285749249 1465808116
            -1521607596 -1874564004 -263055938 -1129004</internalNodes>
          <leafValues>
            -4.3497326970100403e-01 4.9317184090614319e-01</leafValues></_>
        <_>
          <internalNodes>
            0 -1 33 -251531069 1023459328 -2080374767 222363664
            1073774721 0 1073774610 -369098752</internalNodes>
          <leafValues>
            -5.8992433547973633e-01 3.5790321230888367e-01</leafValues></_>
        <_>
          <internalNodes>
            0 -1 16 -653188653 -1073737645 -2147450752 -1069506541
            -2147464646 -2013233015 4210817 -129559947</internalNodes>
          <leafValues>
            -5.7534128427505493e-01 3.6660784482955933e-01</leafValues></_>
        <_>
          <internalNodes>
            0 -1 15 1363624339 -1878719741 275 1094975521 13107331
            -1476360062 142690443 494104785</internalNodes>
          <leafValues>
            -7.4207741022109985e-01 2.6065641641616821e-01</leafValues></_>
        <_>
          <internalNodes>
            0 -1 25 166001 -2122247800 262353 886578280 415268898
            -1073610752 67728 -72680964</internalNodes>
          <leafValues>
            -5.0591236352920532e-01 4.2723548412322998e-01</leafValues></_>
        <_>
          <internalNodes>
            0 -1 22 -1835562989 -783576925 -2011659245 939593884
            -2010595068 259 -2128559856 -142997416</internalNodes>
          <leafValues>
            -4.8722419142723083e-01 4.2711636424064636e-01</leafValues></_></weakClassifiers></_></stages>
  <features>
    <_>
      <rect>
        0 0 1 2</rect></_>
    <_>
      <rect>
        0 0 1 8</rect></_>
    <_>
      <rect>
        0 0 6 2</rect></_>
    <_>
      <rect>
        0 0 8 3</rect></_>
    <_>
      <rect>
        0 0 8 8</rect></_>
    <_>
      <rect>
        0 6 7 1</rect></_>
    <_>
      <rect>
        0 10 4 1</rect></_>
    <_>
      <rect>
        0 15 3 3</rect></_>
    <_>
      <rect>
        0 15 8 3</rect></_>
    <_>
      <rect>
        0 18 1 2</rect></_>
    <_>
      <rect>
        0 21 8 1</rect></_>
    <_>
      <rect>
        1 6 7 1</rect></_>
    <_>
      <rect>
        1 17 7 2</rect></_>
    <_>
      <rect>
        2 0 2 3</rect></_>
    <_>
      <rect>
        2 5 6 1</rect></_>
    <_>
      <rect>
        2 6 1 2</rect></_>
    <_>
      <rect>
        2 7 2 4</rect></_>
    <_>
      <rect>
        6 8 4 3</rect></_>
    <_>
      <rect>
        6 18 2 2</rect></_>
    <_>
      <rect>
        7 0 4 2</rect></_>
    <_>
      <rect>
        7 16 3 1</rect></_>
    <_>
      <rect>
        8 8 2 1</rect></_>
    <_>
      <rect>
        8 9 1 1</rect></_>
    <_>
      <rect>
        8 10 1 2</rect></_>
    <_>
      <rect>
        9 9 1 1</rect></_>
    <_>
      <rect>
        9 10 1 1</rect></_>
    <_>
      <rect>
        9 13 1 1</rect></_>
    <_>
      <rect>
        10 9 1 1</rect></_>
    <_>
      <rect>
        11 5 1 3</rect></_>
    <_>
      <rect>
        11 8 1 2</rect></_>
    <_>
      <rect>
        11 9 1 1</rect></_>
    <_>
      <rect>
        11 10 1 1</rect></_>
    <_>
      <rect>
        11 11 2 1</rect></_>
    <_>
      <rect>
        11 15 4 3</rect></_>
    <_>
      <rect>
        12 0 4 4</rect></_>
    <_>
      <rect>
        12 9 1 1</rect></_>
    <_>
      <rect>
        12 12 1 1</rect></_>
    <_>
      <rect>
        12 14 4 3</rect></_>
    <_>
      <rect>
        14 15 3 3</rect></_>
    <_>
      <rect>
        15 8 3 3</rect></_>
    <_>
      <rect>
        18 0 2 1</rect></_>
    <_>
      <rect>
        18 0 2 8</rect></_>
    <_>
      <rect>
        18 12 2 4</rect></_>
    <_>
      <rect>
        21 21 1 1</rect></_></features></cascade>
</opencv_storage>
