<?xml version="1.0"?>
<opencv_storage>
<stage1>
  <maxWeakCount>8</maxWeakCount>
  <stageThreshold>-1.1223093271255493e+00</stageThreshold>
  <weakClassifiers>
    <_>
      <internalNodes>
        0 -1 27558 -2.5162035226821899e-01</internalNodes>
      <leafValues>
        -6.6153848171234131e-01 3.9574468135833740e-01</leafValues></_>
    <_>
      <internalNodes>
        0 -1 91951 5.9395437128841877e-03</internalNodes>
      <leafValues>
        -2.1475520730018616e-01 8.9978438615798950e-01</leafValues></_>
    <_>
      <internalNodes>
        0 -1 90550 2.2257202863693237e-01</internalNodes>
      <leafValues>
        3.0487036705017090e-01 -7.2624069452285767e-01</leafValues></_>
    <_>
      <internalNodes>
        0 -1 103205 4.3886546045541763e-03</internalNodes>
      <leafValues>
        -2.5871074199676514e-01 8.0635535717010498e-01</leafValues></_>
    <_>
      <internalNodes>
        0 -1 162320 -7.9693621955811977e-05</internalNodes>
      <leafValues>
        -4.0343433618545532e-01 3.9668649435043335e-01</leafValues></_>
    <_>
      <internalNodes>
        0 -1 6818 -3.3435270190238953e-02</internalNodes>
      <leafValues>
        8.2024282217025757e-01 -2.1788030862808228e-01</leafValues></_>
    <_>
      <internalNodes>
        0 -1 161966 -4.3788342736661434e-04</internalNodes>
      <leafValues>
        -4.2381969094276428e-01 3.7673389911651611e-01</leafValues></_>
    <_>
      <internalNodes>
        0 -1 143639 1.7721294425427914e-03</internalNodes>
      <leafValues>
        -2.1886549890041351e-01 7.2678691148757935e-01</leafValues></_></weakClassifiers></stage1>
</opencv_storage>
