<?xml version="1.0"?>
<opencv_storage>
<stage10>
  <maxWeakCount>7</maxWeakCount>
  <stageThreshold>-8.9849680662155151e-03</stageThreshold>
  <weakClassifiers>
    <_>
      <internalNodes>
        0 -1 8019 -175114957 321642769 1074003969 889278467 -1035992832
        -1627193344 -1056911104 217054875</internalNodes>
      <leafValues>
        -8.9610391855239868e-01 7.4456340074539185e-01</leafValues></_>
    <_>
      <internalNodes>
        0 -1 1655 2333 -620166911 283 -1072693221 -2146596725
        -1157038068 -2138275309 -2079932411</internalNodes>
      <leafValues>
        -5.0586235523223877e-01 5.3453940153121948e-01</leafValues></_>
    <_>
      <internalNodes>
        0 -1 5932 2064846935 976138497 1091049522 -2112094176 17482289
        287703041 807682224 -1078279712</internalNodes>
      <leafValues>
        -5.7419127225875854e-01 3.6227032542228699e-01</leafValues></_>
    <_>
      <internalNodes>
        0 -1 1390 -758910761 1124270145 114909 -38469537 -1576830769
        -473823031 680200319 1551002491</internalNodes>
      <leafValues>
        -7.7367937564849854e-01 2.7192085981369019e-01</leafValues></_>
    <_>
      <internalNodes>
        0 -1 5614 -1562434505 -775174712 -804508203 -687685120
        -1998838491 564133904 210273268 -104316768</internalNodes>
      <leafValues>
        -5.6114339828491211e-01 3.7587091326713562e-01</leafValues></_>
    <_>
      <internalNodes>
        0 -1 6340 -327826467 -421936875 1410941012 -220802856
        -1072603095 -1935605366 541216988 -813808440</internalNodes>
      <leafValues>
        -5.0519806146621704e-01 3.7684398889541626e-01</leafValues></_>
    <_>
      <internalNodes>
        0 -1 4297 -1049633 16994438 9029109 755171333 680020591
        176717962 706955503 1787531403</internalNodes>
      <leafValues>
        -7.5255000591278076e-01 2.5788399577140808e-01</leafValues></_></weakClassifiers></stage10>
</opencv_storage>
