<?xml version="1.0"?>
<opencv_storage>
<stage8>
  <maxWeakCount>6</maxWeakCount>
  <stageThreshold>-3.9169538766145706e-02</stageThreshold>
  <weakClassifiers>
    <_>
      <internalNodes>
        0 -1 4101 -620510753 2131874207 -66893475 1070843359 1904797883
        1554546875 2014072287 90272877</internalNodes>
      <leafValues>
        -8.0249279737472534e-01 7.5984174013137817e-01</leafValues></_>
    <_>
      <internalNodes>
        0 -1 4743 -1342230721 595570559 805257087 587202559 805271423
        7601975 2013231103 -58722317</internalNodes>
      <leafValues>
        -5.0496530532836914e-01 6.6932195425033569e-01</leafValues></_>
    <_>
      <internalNodes>
        0 -1 5095 -153416911 -1286406068 -2121158241 860639708
        -1887063499 -1157332992 -1870145552 -115342128</internalNodes>
      <leafValues>
        -5.9769397974014282e-01 4.4138431549072266e-01</leafValues></_>
    <_>
      <internalNodes>
        0 -1 6320 -588295049 -1761198258 -1615398092 -564732324
        2112046752 -972786097 -949081056 -69315108</internalNodes>
      <leafValues>
        -4.5297893881797791e-01 4.9971643090248108e-01</leafValues></_>
    <_>
      <internalNodes>
        0 -1 7332 -237765641 2101432533 -770686893 857444497 1140883522
        1367376384 -2147433805 193179907</internalNodes>
      <leafValues>
        -6.3703781366348267e-01 3.5336849093437195e-01</leafValues></_>
    <_>
      <internalNodes>
        0 -1 6668 -1463553185 -872251244 -1055706823 -65912812 9646128
        -2004352103 -801501132 -86093412</internalNodes>
      <leafValues>
        -5.2377843856811523e-01 4.4096937775611877e-01</leafValues></_></weakClassifiers></stage8>
</opencv_storage>
