<?xml version="1.0"?>
<opencv_storage>
<stage11>
  <maxWeakCount>8</maxWeakCount>
  <stageThreshold>-2.0767173171043396e-01</stageThreshold>
  <weakClassifiers>
    <_>
      <internalNodes>
        0 -1 4349 557908107 -1584824295 16777233 -435617767 134742043
        -1953988478 33554451 7831603</internalNodes>
      <leafValues>
        -8.4677422046661377e-01 7.3081040382385254e-01</leafValues></_>
    <_>
      <internalNodes>
        0 -1 5049 -134762701 -400264517 -487068111 1914239016
        -1707984239 1144356148 1623192752 -1279599472</internalNodes>
      <leafValues>
        -4.2095103859901428e-01 5.8140343427658081e-01</leafValues></_>
    <_>
      <internalNodes>
        0 -1 6281 -1083489257 -697932579 -285749249 1465808116
        -1521607596 -1874564004 -263055938 -1129004</internalNodes>
      <leafValues>
        -4.3497326970100403e-01 4.9317184090614319e-01</leafValues></_>
    <_>
      <internalNodes>
        0 -1 6403 -251531069 1023459328 -2080374767 222363664 1073774721
        0 1073774610 -369098752</internalNodes>
      <leafValues>
        -5.8992433547973633e-01 3.5790321230888367e-01</leafValues></_>
    <_>
      <internalNodes>
        0 -1 1717 -653188653 -1073737645 -2147450752 -1069506541
        -2147464646 -2013233015 4210817 -129559947</internalNodes>
      <leafValues>
        -5.7534128427505493e-01 3.6660784482955933e-01</leafValues></_>
    <_>
      <internalNodes>
        0 -1 1668 1363624339 -1878719741 275 1094975521 13107331
        -1476360062 142690443 494104785</internalNodes>
      <leafValues>
        -7.4207741022109985e-01 2.6065641641616821e-01</leafValues></_>
    <_>
      <internalNodes>
        0 -1 5554 166001 -2122247800 262353 886578280 415268898
        -1073610752 67728 -72680964</internalNodes>
      <leafValues>
        -5.0591236352920532e-01 4.2723548412322998e-01</leafValues></_>
    <_>
      <internalNodes>
        0 -1 5069 -1835562989 -783576925 -2011659245 939593884
        -2010595068 259 -2128559856 -142997416</internalNodes>
      <leafValues>
        -4.8722419142723083e-01 4.2711636424064636e-01</leafValues></_></weakClassifiers></stage11>
</opencv_storage>
